-0.0750611 0.0325509 -0.0241879 -0.00715442 0.0440451 -0.04347 -0.025423 0.02677 -0.0775646 0.0229937 -0.0341957 -0.0458189 0.0261403 -0.0227066 -0.00413069 -0.0489588 0.0892971 -0.000855322 0.0357371 -0.097673 0.00413252 0.0217576 0.00239321 -0.0947565 -0.0216914 0.119451 -0.0043565 -0.000975275 -0.0706305 -0.024259 -0.0522119 -0.0396488 -0.00317668 0.0095296 -0.0913547 0.0384623 0.0760144 -0.0479278 -0.0274821 0.00676529 -0.04245 0.0569877 0.06208 0.0845907 -0.0173741 -0.089393 -0.0259966 0.00687299 0.0394336 -0.00592831 -0.0663018 -0.0593841 -0.0740756 0.0491105 -0.0112899 0.0667795 -0.0315647 0.0311482 0.0159818 0.000568882 -0.0125757 0.0163651 0.0389463 -0.0322502 
-0.00148954 -0.0562037 0.0337694 -0.0675127 0.0246381 0.032437 0.0636737 0.0228132 -0.0528991 0.0261527 -0.00866355 -0.0967352 0.0832659 0.0401582 0.059786 -0.0715082 -0.0951855 0.0589676 -0.0244657 0.0482815 0.016781 -0.0253141 -0.0579342 -0.00684471 -0.0800112 0.0272539 0.0318998 0.0467184 0.0204351 0.027951 -0.112145 0.0435407 -0.0165217 0.0116306 -0.0606253 -0.0511383 -0.0449523 -0.0344092 0.0416085 0.0132728 0.0823861 -0.102119 0.0124587 0.0293078 0.016475 -0.00533391 0.117552 -0.0042814 -0.0681427 -0.0223933 0.0448318 0.0686671 0.0292806 -0.0595291 -0.0267202 -0.0412018 0.0446718 0.0671492 0.0279705 0.00663814 0.0484115 -0.0597744 0.0106824 0.0560882 
0.0131421 -0.086932 0.00411897 -0.0290824 -0.0705377 0.000818656 -0.0284644 0.00565549 -0.0452995 -0.0594247 -0.00187931 0.0504842 -0.0259968 -0.0411556 0.0796557 -0.0102606 -0.0814183 -0.0311162 -0.0612284 -0.0797247 0.00318282 -0.0730539 -0.0479643 -0.0633001 0.0100463 0.00152187 -0.00303136 0.0363789 0.00298333 0.00396153 -3.25031e-05 0.0513915 -0.0164011 0.00840389 -0.0838846 0.0963577 0.0195133 -0.0285475 0.0189504 0.0232799 -0.0436868 0.0363219 0.0387839 0.048871 -0.0412507 -0.12647 -0.0136201 0.097029 -0.00341561 0.0771826 -0.0179594 -0.0227558 0.0283518 0.127397 0.0673372 -0.0195292 0.0802369 -0.0053226 -0.0280708 0.0851949 -0.0707728 -0.0725129 0.0203439 0.0362034 
-0.0343239 -0.0193905 -0.0291347 -0.0686317 -0.0268917 0.0527876 0.02634 -0.00911896 -0.00581269 0.0465564 -0.0286813 -0.0961256 -0.00841448 0.00999697 0.00200462 0.00479532 0.0349078 -0.0493377 -0.0401058 -0.021266 0.0472172 0.0695159 -0.0730291 0.0165804 -0.0700098 -0.0966546 -0.0282034 0.0284703 0.00178614 0.0670005 0.00846445 0.0462103 0.0278104 -0.0115329 -0.01111 0.012698 -0.0169166 -0.0860887 0.0700021 -0.0318453 -0.0193211 -0.00265394 0.0346554 -0.0237544 -0.0380107 -0.064094 0.0657111 0.0671081 0.0594118 0.00311464 -0.0390069 -0.0297746 0.0687562 0.0705231 -0.00190134 0.000738471 -0.0140126 -0.0340052 0.0439802 0.0147995 0.0162425 0.00826211 -0.0142622 -0.0859187 
0.0612717 0.0965252 -0.00774227 0.00573355 0.00251714 0.0217401 0.0432276 -0.070505 0.0400774 -0.0149055 -0.000451416 0.0212272 0.0339679 -0.0259523 0.0398263 0.0418349 0.00333848 -0.0105441 0.0252153 0.0129587 -0.0236353 -0.112464 0.0538698 -0.0531413 0.0524621 -0.0124088 -0.0177868 0.00969257 0.0291883 0.111466 0.0695112 0.055892 0.0675762 0.0153198 -0.0168367 0.0459202 0.0233029 -0.0678034 0.0631915 -0.0957161 0.0128178 -0.0302297 -0.102575 0.0665835 -0.0133726 0.0139453 0.00863099 -0.0665554 -0.00828091 0.079589 -0.0220553 -0.0080668 -0.0226773 -0.0120685 -0.0651235 0.0290951 -0.043877 0.0499587 -0.031667 0.0231784 0.0329305 -0.0441243 0.0357765 -0.0515961 
0.00820213 -0.014557 0.0298348 0.0956848 -0.00187873 0.0203597 -0.136947 -0.0441891 0.0856104 0.0690828 0.009426 -0.0143271 -0.0713433 -0.00301071 0.0345559 -0.00856217 0.00342285 -0.0367763 0.0129319 -0.0700348 -0.0120416 -0.13721 -0.0246159 0.0863004 0.117811 -0.01765 -0.0414196 -0.0258569 0.0268547 0.0134716 0.00215243 -0.0600378 -0.102852 -0.101539 0.00160678 -0.0167496 0.0258766 -0.00202399 0.0751294 0.0150395 -0.0117438 0.108963 -0.106911 -0.0706324 0.0176799 -0.035713 -0.0665537 -0.0280022 0.0288694 -0.0449693 -0.059173 -0.0584906 -0.061755 -0.00304285 -0.0102261 -0.00753925 -0.0526987 -0.0135189 -0.0585943 0.0718806 -0.0139165 -0.0412562 -0.0740936 -0.0855885 
0.0583288 0.0105524 0.0186468 0.054848 -0.0566857 -0.127691 0.0569324 0.0586451 -0.00127091 0.00599282 -0.016857 -0.0503048 0.0384258 0.0836691 -0.00434442 -0.0782535 -0.0146903 -0.0179648 -0.0799191 -0.0141924 0.00902874 0.0945388 -0.055882 -0.085606 -0.0180024 0.0390737 -0.0973414 0.10045 0.0869808 0.0788954 -0.15547 0.132503 -0.0725643 0.0648422 0.0188926 0.0497431 0.0314898 -0.107249 0.0740197 0.0121522 0.115021 0.0261093 0.019133 0.0384072 0.0788601 0.02822 0.00180256 0.016991 0.00399491 0.0420049 0.0178675 -0.0372625 0.0476097 -0.0223539 -0.00895013 0.0525867 -0.0827291 -0.0172879 -0.03923 0.0235557 -0.031581 -0.0411513 0.00608519 -0.0385336 
-0.0901556 0.111287 0.149488 0.113406 -0.0488829 0.0748227 0.0133934 0.103253 0.0678674 -0.0326907 -0.0736697 -0.0427621 -0.0187933 0.00766663 -0.0224922 -0.0345585 -0.0572785 -0.0164191 0.0532673 0.0146887 0.0603262 -0.00155454 0.0175164 -0.0802955 0.0501538 -0.0116398 0.0455058 0.0681665 0.0372778 -0.0112208 -0.00329448 -0.000145964 0.0770322 -0.013123 -0.0366327 -0.00224751 0.0523355 -0.0591978 -0.0246854 -0.0309669 0.0255358 0.029882 -0.00911823 -0.100933 0.0545162 0.00337674 0.0733874 -0.00916779 0.0328115 -0.0432201 0.12891 0.0119349 0.00210149 0.0312737 -0.0216878 0.00489227 0.0715905 0.0124381 0.0473784 -0.0250651 -0.193997 -0.0739674 -0.0528193 0.0319746 
0.00579515 0.0533891 0.000907405 -0.0429212 -0.113743 -0.058712 0.0429847 -0.0589044 -0.0306349 -0.0519476 0.0241855 0.042555 0.0480304 0.00860825 0.0241466 0.102306 0.0032276 0.018409 0.0217431 -0.0927232 0.0578248 -0.00222675 0.0104264 -0.0989175 0.0191426 -0.127331 0.0378127 0.0130216 0.0387348 0.0593278 0.0468906 -0.0506136 -0.00363726 0.0695922 -0.0417205 0.0130621 0.0188757 0.0230322 -0.0775313 -0.0213992 0.0243175 -0.0137711 -0.0414794 -0.00355036 0.00882817 -0.0190701 0.0224767 -0.0343954 0.151572 -0.051131 -0.0477242 -0.00495856 -0.000747109 -0.0155139 0.0651679 0.0150067 0.049497 -0.0111845 0.101383 -0.0173606 -0.102828 0.00768791 -0.0263542 0.00514138 
-0.038252 -0.00693371 -0.0215692 -0.0152606 -0.00655753 0.0379306 -0.0959889 -0.0129825 0.0335444 -0.0949389 0.109892 0.0603339 -0.00293132 -0.0471798 -0.014067 -0.0183961 -0.0412105 -0.00880258 -0.041962 -0.0825168 -0.0702217 0.00823321 0.0383018 -0.00761179 0.0196397 -0.0597307 -0.0119489 -0.00705008 0.0283764 -0.073031 0.0977806 0.0360629 0.0778472 0.0291496 0.0500031 0.00749834 0.00902569 -0.103686 -0.0786904 -0.0192714 -0.0692041 -0.027855 -0.00558873 0.0519977 -0.0935083 -0.00400955 -0.00132587 -0.00305771 0.0317352 0.0099934 -0.0336759 0.0182983 -0.0604909 0.0458637 0.0940014 0.00893514 -0.0199204 0.0453196 -0.0815173 -0.00612899 -0.0316026 -0.115659 -0.0640056 0.0115512 
-0.00971479 0.0171793 0.0506095 0.0176594 0.0051611 -0.029351 -0.0851565 -0.042625 0.058115 0.0339087 0.010434 -0.0550533 -0.0450891 -0.0626776 -0.0291316 0.0153628 -0.038995 0.00487059 -0.0448767 0.0114777 0.0125192 0.00556915 0.0693772 0.00585902 0.0378681 -0.0641114 -0.0592496 0.0193997 0.0407139 0.0436992 -0.0161388 0.00494088 -0.0289973 0.0794739 0.0104612 0.0799605 0.0567829 -0.074821 -0.0267003 -0.029435 -0.000567881 -0.000199076 -0.0653379 -0.0381925 -0.0871872 0.0488606 0.0123375 -0.0175215 0.0107787 -0.0338498 -0.0348017 -0.0710583 -0.0165196 -0.00948089 0.0011233 0.0385765 -0.00892647 0.0598712 0.043409 0.01675 -0.0668937 -0.00494948 -0.035006 -0.06287 
-0.0060495 -0.0306977 0.0218263 -0.000225627 0.00280781 -0.0534302 -0.0357199 -0.0148179 -0.0295034 0.0696681 -0.0482894 -0.105462 0.03067 0.00907373 -0.0350262 0.00729115 0.0335935 2.09187e-05 0.00128139 -0.0895982 0.0537203 -0.00169979 0.135595 0.0692452 -0.0339374 -0.0936546 -0.0920308 -0.0357686 -0.085261 0.00643501 0.0764152 -0.0154825 0.0293891 0.0741353 -0.0172663 -0.0205407 -0.00934367 -0.0173353 -0.0316678 0.0481266 -0.12255 0.0205177 0.00235823 -0.169079 -0.0112208 -0.0602929 -0.0728925 0.0365202 -0.0464538 0.0110479 -0.0404534 0.0794796 0.0165789 0.0535689 -0.0623128 -0.034949 -0.0192248 -0.00254551 0.0772499 0.0519504 -0.114903 0.0576653 0.00656911 0.106898 
0.050115 0.0338129 -0.112613 -0.0492949 -0.0365428 0.0135502 0.0354463 0.00649587 0.0308615 -0.0176698 -0.0486678 0.0201104 0.0505548 -0.00807578 -0.0141806 0.0193587 0.0456598 -0.038814 0.0172755 -0.0461214 0.0877549 0.0530041 0.0616101 -0.0068262 -0.0359855 -0.0353301 -0.0654409 -0.100832 0.0718564 0.109225 -0.0170341 -0.022521 0.0726384 -0.035283 0.0821323 0.0348794 0.0613452 0.0324111 -0.00303094 0.00607943 -0.00889771 -0.00833233 -0.0392044 -0.0201499 -0.0483348 0.0269564 0.0243468 -0.000959625 -0.0683252 -0.0253192 -0.0291516 0.00726355 -0.0022742 0.0470561 -0.00970964 0.0634274 -0.024704 -0.00231569 0.0147919 -0.0130594 0.0202682 -0.03999 0.0521208 -0.0263886 
-0.00698325 -0.0362777 0.00846157 0.00832795 0.0293817 -0.0136069 0.00506789 -0.0731199 0.0499057 -0.000152652 0.0528898 0.0460119 0.0016393 0.0653713 0.0164704 -0.0992408 0.0271923 -0.0132694 -0.0838466 0.0295181 -0.035446 -0.0817595 0.0335536 0.0140605 -0.0531533 -0.0714292 0.00956981 -0.0105613 -0.0642957 0.00309813 0.0062352 0.0183081 0.0056488 -0.0964171 0.0636041 0.0128456 -0.0141847 -0.0374908 -0.0197594 0.0184268 0.0129398 0.0424278 0.0557564 0.0456997 -0.0780972 -0.0416423 0.00896327 0.0365407 0.053955 0.0499529 -0.00861995 -0.0678474 -0.0264471 0.0236176 0.0435688 0.0125284 -0.000358744 -0.00994635 -0.017161 0.00434286 0.00601637 -0.0820984 -0.0441909 -0.000197851 
0.0512259 0.0160795 -0.0118904 0.0538419 -0.0215121 0.0304276 -0.0500169 0.0114887 0.0579429 0.00246886 0.0404439 -0.0335211 -0.0536815 0.00356812 0.0961304 0.0585977 -0.015813 -0.0474726 -0.0262973 0.012684 -0.102152 -0.081011 0.0578484 0.0101575 -0.0563867 0.0327623 -0.0384381 -0.05209 0.0413506 0.0868979 -0.000929701 -0.098442 -0.04202 -0.0806041 0.138782 -0.0190373 -0.116081 -0.0784976 -0.0676293 -0.0081047 0.0490499 0.00720522 0.0292744 0.0652013 -0.0590049 0.0074695 0.0569765 0.0503 0.0923359 0.0447548 0.0126089 0.0455801 0.0321034 0.0096898 0.0905972 0.0341672 -0.0216236 -0.0717392 -0.0353729 -0.0422118 0.0227074 -0.0206259 0.0410774 0.0271652 
-0.0609995 0.0285636 -0.110505 -0.0399852 -0.169879 -0.0248717 -0.105293 -0.0796592 -0.0586146 0.00778516 0.0205331 -0.00166841 0.0108876 0.0166172 0.0799417 0.0447734 -0.017511 -0.109788 0.0135691 -0.0705871 -0.0263462 -0.00311895 0.00218211 0.0167335 -0.0946546 -0.0194433 0.0110259 0.0142379 -0.0357989 0.0529776 0.0505272 -0.0653514 -0.00658493 0.0307022 -0.0267998 -0.0776054 -0.0400881 0.00353396 -0.0351238 0.0642659 0.00521794 -0.00298056 0.0269902 -0.03992 -0.0761087 -0.0414453 -0.0149241 0.00650782 0.0192964 0.100984 0.158463 0.0852435 0.0236883 -0.0533034 0.0593419 -0.024931 -0.0190071 0.0546192 -0.0306398 -0.107541 -0.0457736 0.0173683 -0.0295468 0.0463839 
0.0439257 -0.00707356 -0.0233267 -0.0155075 -0.0294266 0.0619665 -0.0192684 0.0212904 0.0226372 0.0182311 -0.101545 -0.0206945 0.0204447 0.0263126 0.0352714 0.00412402 0.0100504 -0.0700707 0.0649213 0.0880821 -0.0520808 0.0108981 0.0892232 -0.025621 0.0020204 0.0374368 0.000285021 0.0430552 -0.00175024 0.0499737 0.0215335 0.0491638 -0.0869855 0.0106769 -0.0156719 -0.0505435 -0.0236695 0.0169807 0.0401415 0.0820311 -0.0396297 0.0327506 -0.0101515 0.0297652 -0.0642473 -0.00792405 0.0377326 -0.0802364 -0.0635487 0.0594044 0.0939969 -0.104532 0.0105957 0.0225524 -0.0348726 0.00401607 -0.0706723 -0.0122678 0.03303 -0.0224488 0.00882447 0.0321853 0.0838133 -0.00321116 
0.00791996 -0.0501855 -0.0504325 0.010763 0.0616891 -0.0742442 -0.0398097 -0.0445744 -0.058539 0.083318 -0.00469424 -0.0220519 0.0153398 0.0143216 0.0478356 0.0407849 -0.0578464 -0.0235973 -0.00541868 0.00620003 0.0058654 -0.0421287 0.0245774 0.0218346 -0.0769987 0.0118588 0.0888624 0.0168825 -0.0116448 0.0383563 -0.0346979 0.112812 0.0175077 -0.158993 0.0289001 0.0208042 -0.0341282 0.0337678 -0.00150619 -0.0336098 -0.03477 -0.028741 -0.073074 -0.0165057 0.0411055 -0.0138796 0.0236101 0.0333304 -0.0631902 -0.0321247 0.0273218 0.0598162 0.0432061 0.0551425 -0.0394091 -0.0668697 -0.042596 0.0317907 0.0165445 0.0382633 0.00103485 -0.0461137 -0.032826 -0.0523661 
0.0202495 0.0525818 0.0228647 0.0270796 -0.0552293 -0.00566141 0.00210634 0.0215906 -0.0488387 0.093004 0.0141775 -0.0319918 -0.0537347 0.056329 -0.00512185 -0.0112541 -0.0108066 0.015984 -0.0133026 0.012651 0.0106823 0.0544712 0.00659668 0.000691262 -0.0206686 -0.0463091 -0.0118324 0.0750877 0.0015518 -0.0680416 0.0138248 -0.00554993 -0.00719339 -0.0231149 -0.108019 -0.000906674 0.0718385 0.000590864 -0.0319782 0.0267724 -0.077449 -0.00233105 -0.0839056 -0.0735388 0.0171806 0.0193272 0.0236027 -0.0798278 -0.0217229 0.054678 0.0906626 0.0405997 0.0288418 0.0367314 0.0647 0.0657193 -0.02571 -0.000497893 -0.0218226 0.0609252 -0.0384502 0.0817523 0.029705 0.0744661 
-0.100483 0.0802719 -0.0036873 0.0407254 -0.05584 0.0370851 0.00959864 -0.0544415 -0.00531195 -0.0232477 0.00713595 -0.0698749 -0.00279501 -0.0322277 -0.0447973 0.0290159 -0.0285174 -0.126315 -0.0652286 -0.0213725 -0.0242065 -0.0241037 -0.0120249 -0.0418307 0.0944006 0.0305352 -0.00884725 0.00648574 0.00830894 0.0735576 -0.0518601 0.0269297 -0.00475508 0.0565291 0.0406969 0.0127301 -0.00664777 0.0340713 -0.0197732 -0.0099185 -0.0157291 0.159615 0.0418199 -0.0495036 0.108039 -0.0890268 0.066881 0.0308028 -0.0117076 -0.0544379 -0.0485516 0.0103057 -0.0141391 0.0595382 -0.104843 0.00147011 0.053583 0.0530801 -0.0177914 -0.0319183 -0.0601246 0.0369108 0.101262 -0.000303143 
0.00142191 -0.0515008 -0.0406347 0.101046 0.108492 -0.0515208 0.0194372 0.00330296 0.0442501 0.0887728 -0.00242094 0.0154209 0.0434659 0.105037 -0.0253278 -0.0806016 0.0136302 -0.0138192 -0.0446737 0.0814627 -0.0416765 0.0796197 -0.0376151 -0.0225653 -0.0446604 -0.0570219 0.0327419 -0.0850672 -0.0772848 0.0766331 -0.00564574 -0.0309293 0.0866597 -0.0432007 0.0609014 0.0970329 0.0280406 -0.0121372 0.0823721 0.0235228 0.0667382 0.0804256 0.0315452 0.0707665 -0.0816919 -0.0393797 -0.00296457 0.03024 0.0571207 0.00780065 -0.0341595 -0.0527097 -0.0478777 0.0485464 0.0341017 -0.0914302 -0.117819 0.0759888 0.0330502 0.0262178 -0.0417309 -0.00156766 0.0146852 -0.0280565 
0.0479992 -0.0449528 -0.0357367 0.147303 0.0024339 0.0314996 0.0582391 -0.0432275 -0.0509583 -0.057235 -0.0606803 -0.0954342 0.0875576 -0.0063936 -0.00866245 -0.0204287 -0.119979 0.0353162 -0.0641387 0.0414524 -0.0365086 -0.00901239 0.0394984 -0.0712727 0.015538 -0.0187982 -0.0153874 -0.0167773 0.00856563 -0.0752867 0.00973887 -0.0582517 -0.0450576 -0.0113144 -0.108653 0.022104 -0.0428332 0.0115711 0.0591844 0.02111 -0.117148 0.0381292 -0.0123501 0.038566 -0.0472724 -0.0521748 -0.0155118 -0.000645468 -0.0537294 0.0957684 0.0164088 -0.0193918 0.011928 0.0183226 0.000374305 -0.0438401 -0.0776227 -0.102323 -0.0651612 0.0156365 0.052743 -0.0320576 0.070394 0.0300102 
-0.0439218 0.0451218 0.0231954 0.0479128 0.0217475 -0.0387703 0.0449101 -0.0839554 0.0578439 -0.0227787 -0.01019 -0.0845296 0.0178634 0.019242 -0.035329 -0.0713004 0.0738271 0.0183756 -0.0425296 0.0516567 -0.00647225 0.109423 -0.020005 0.0913697 -0.0279661 -0.00615865 -0.00661261 0.0314458 0.0461398 -0.0236353 0.0476877 -0.0651724 0.0409026 -0.0453091 0.0893675 0.0922568 -0.0179199 0.0102869 -0.00250954 0.0108706 0.0581518 0.0601859 3.09549e-06 -0.0305297 0.0829581 0.0036698 -0.0056336 -0.0721576 0.0766072 0.0800969 -0.0172515 0.0993193 0.0235189 0.0475797 -0.0365185 0.0511471 0.0035346 0.0298929 0.0183287 0.0299546 0.0969731 0.0623339 -0.185648 -0.0550517 
0.165479 0.0867932 0.0370284 -0.0573767 -0.0575683 -0.0554672 0.00299149 0.00665187 -0.0270098 -0.0474122 0.043445 0.0438951 0.0596007 -0.00494205 -0.0189992 -0.0354436 0.0926663 -0.0377323 -0.0060283 -0.00186939 -0.104462 -0.0176308 0.00507819 -0.0252864 -0.0339494 -0.00798311 0.0265623 -8.68012e-05 0.0380377 -0.0310871 -0.0417076 -0.0363536 0.00592961 0.0131849 -0.0226032 0.0624659 -0.00776882 0.029771 -0.0134197 -0.0193243 -0.0135591 0.0159677 -0.0179418 -0.0263894 -0.0528855 -0.0414482 -0.0633217 -0.0236951 -0.0300122 0.0428334 -0.0591433 -0.0871476 0.0319112 -0.00334474 -0.0395024 -0.0538765 -0.0308162 0.0514473 0.0279606 0.0312408 0.0245464 0.0767393 0.0134472 0.0296324 
0.0307295 0.0558462 -0.00740464 0.0464354 -0.0523792 0.0423693 -0.029672 0.00587944 -0.0316255 -0.0288293 0.0314717 0.120551 -0.0704268 0.0514153 0.00425302 -0.040335 0.0324639 -0.0245384 -0.0576558 -0.0421711 0.00530104 -0.0231677 -0.0752567 0.0391808 0.0739139 -0.0560849 -0.0495051 0.0366291 -0.0438176 0.0896147 -0.0563128 -0.000752424 0.0605459 0.0284993 0.0392616 -0.0156745 -0.0523605 -0.0365483 0.0288338 0.0681066 -0.0831607 0.0439186 -0.0653438 0.03363 0.00893513 0.0235546 -0.0894738 -0.0214119 -0.0518842 -0.0891723 0.0955601 -0.00656808 -0.0386092 0.040139 -0.0191023 -0.0642582 0.0802828 -0.00231402 -0.0899706 0.051009 -0.0280659 -0.0688754 0.0124024 -0.0219942 
-0.027478 -0.0322984 0.0164188 0.0362152 0.0447306 0.0660102 -0.0678469 0.017126 0.0255242 -0.0495411 -0.0187097 0.0148257 0.0988123 0.103138 0.0158579 0.0148084 0.0346366 0.00920825 -0.0316396 0.095062 -0.06412 -0.020061 -0.0319112 -0.143465 0.0370206 0.0391559 0.0637204 -0.0808151 0.0301372 0.00723011 -0.042819 -0.0164158 -0.0424977 0.00960885 0.033034 -0.0201545 0.0346593 0.0297202 0.0270323 0.0651455 -0.00731623 0.011795 0.0441848 -0.0208044 -0.064124 0.0132413 0.0446081 0.0994902 0.0134687 0.0585211 0.0550867 -0.0365018 -0.0426313 -0.00180794 -0.00315312 0.0463433 -0.0036468 -0.0542706 -0.0954091 0.0416758 0.0104655 -0.0391842 -0.00510995 -0.00487172 
-0.0258533 -0.0899996 0.0457275 -0.0436644 0.0082925 -0.0297189 0.00721485 -0.120438 -0.074106 -0.0898623 -0.0388899 0.00113603 0.0125433 -0.106541 -0.0375478 -0.0287096 0.000264144 -0.00143863 -0.0173956 -0.0628296 0.0267762 0.0423347 -0.0062737 0.00478873 0.014249 0.0125853 -0.00580664 -0.0434409 -0.00871892 -0.0181266 0.0237878 0.082371 -0.047229 -0.0497738 -0.0019991 0.10742 0.0305559 0.0558326 -0.138365 0.013434 -0.00412567 -0.0332281 0.0138032 -0.00830987 -0.0500203 -0.0302508 -0.0551621 0.0046932 0.0354444 0.0263739 -0.0347164 0.0791495 0.0311407 0.0734467 0.0220491 0.0539407 0.00131431 0.0737893 0.000174282 0.0180587 0.0172343 0.0150442 -0.037989 0.0521597 
-0.0376968 -0.0062513 0.0176592 0.0422387 -0.0370434 -0.0283074 -0.045603 -0.00833689 -0.0581998 -0.0492731 0.0478054 -0.0398271 0.0907028 -0.0080092 0.0601942 -0.0365303 -0.0910835 -0.0258256 -0.0483085 0.0721586 0.0121183 -0.0183403 0.0595058 -0.000749825 -0.119346 0.0442774 0.0948154 -0.00817971 -0.0275855 -0.0555276 -0.0431882 0.0685387 0.0724118 -0.0550583 0.0452862 -0.0313932 0.0151839 0.0458259 0.0340336 -0.052061 0.0197606 -0.0226545 0.0370219 0.00132177 0.0265038 0.00291559 0.0198444 -0.0109485 0.0288902 0.0398109 -0.0423236 0.0647709 0.00684325 -0.019653 0.0719431 -0.0123942 -0.0682127 -0.0548169 0.00121391 -0.0209983 -0.0234576 0.0506671 -0.111029 -0.0232449 
-0.0476665 -0.0993854 -0.0504004 -0.0653656 0.0138737 -0.0235783 -0.0350357 -0.0672947 -0.00817968 0.036578 -0.0276238 -0.0417156 -0.0835727 -0.0541089 0.0374569 -0.0249499 0.0222881 -0.0414466 -0.0598567 -0.0776885 -0.0348433 -0.0287749 0.0303161 -0.0443706 -0.0960706 -0.0385491 -0.0221446 -0.00213839 0.00447691 -0.0291602 0.129733 0.000410953 -0.0478192 -0.0165406 -0.0566463 0.0123234 0.0381879 0.0644449 0.0459434 0.0606203 0.032072 -0.054168 -0.00876121 -0.0505748 -0.0548696 0.040278 0.0342029 0.0362422 0.0648011 -0.0464063 0.0349822 -0.00809424 -0.0551275 0.025175 -0.00186293 -0.0211609 -0.00178319 -0.0134373 0.0291599 -0.0755483 0.00239962 0.0622083 0.014959 0.0161746 
-0.0365164 0.0140218 0.0444675 0.0292811 -0.00309174 -0.0517119 0.0756177 0.0209164 0.0350033 -0.0124811 0.0272467 -0.00144378 -0.0640522 0.00605522 -0.0799776 -0.0711097 0.0663927 -0.023245 0.0283941 -0.0505795 -0.0626289 0.0412524 -0.0299988 0.0318556 0.0263382 -0.14754 -0.0952154 -0.0267304 0.111087 -0.0376313 -0.00164382 -0.0508384 0.00555981 0.070998 0.0271413 0.00996695 0.0946431 0.137838 -0.076196 -0.0589808 0.0798212 -0.0558977 -0.0536472 -0.0324644 0.000577139 -0.0762643 -0.0364866 -0.107674 -0.017253 -0.0534578 0.0375415 0.00996149 0.0593906 0.0905988 0.047211 0.0675171 -0.0078143 -0.0372654 0.0115969 -0.0319495 -0.0527033 0.0252338 0.0313908 -0.0139199 
-0.0406717 -0.0651466 -0.105342 -0.0686259 0.054148 0.0592801 0.108645 0.022167 0.0735923 -0.0938025 -0.0231869 0.0444861 0.00685309 -0.0726202 -0.0779901 0.0646009 -0.0423046 -0.0835903 -0.0417326 -0.049792 0.0200214 -0.0201944 0.00955925 -0.0315168 -0.0597223 -0.00350045 0.0318258 0.0134028 -0.0236617 -0.0107748 -0.121273 0.00711646 0.0724655 0.0420474 0.0928007 0.0453867 -0.0489004 0.0723568 -0.000664261 0.114599 -0.0615813 -0.067934 0.0144572 -0.0334854 0.0111853 -0.0575797 0.0755362 -0.0690127 -0.039163 -0.00324827 0.0123659 0.0795327 -0.00100418 0.0472113 0.0855404 -0.0534176 0.0157391 -0.0242865 -0.0166573 -0.0217707 0.0462027 0.00634574 -0.046419 -0.0814128 
-0.0194384 0.109899 -0.000786481 0.0410812 0.006019 -0.0561944 0.008735 -0.0551829 -0.00541553 0.0659346 0.0346895 -0.0317925 0.00669226 -0.0057122 -0.0169299 0.0404768 0.0288696 0.0970844 0.0285881 -0.0255469 0.0422717 -0.0321362 -0.0276269 0.032303 -0.0289748 -0.0557698 0.0296128 0.0806849 -0.0256223 0.036689 0.0244077 -0.0127431 -0.0214586 -0.0380211 0.00476317 0.0842306 0.01764 -0.0541249 0.115496 -0.0218107 -0.0495348 -0.129361 0.0183151 -0.00328066 -0.0641098 -0.0363254 0.0163443 -0.0638418 0.00322898 0.0262066 -0.0376566 0.0380546 -0.0323311 0.113153 0.0271814 -0.0292058 0.00214242 -0.0031548 -0.00474299 0.00748916 0.0813861 -0.0593446 -0.0044787 -0.0395204 
